0.00801054 -0.00189200 -0.00185310 -0.00111158 0.00501621 -0.00866934 -0.00102860 -0.00757743 0.00712635 -0.00726763
-0.00198508 -0.00363137 -0.00892302 0.00244272 0.00608161 0.00603541 0.00501765 -0.01171712 0.00792666 0.01385528
0.00028904 -0.00323959 0.01533077 0.01216523 -0.00343265 -0.00302475 0.00430213 -0.00488320 -0.00861993 -0.00330863
-0.02782555 -0.02989059 0.05156414 0.02064086 -0.06471103 -0.03015518 0.13329602 -0.02538227 -0.02708445 -0.00910002
-0.09097886 -0.05327227 0.19266679 0.02823637 -0.26173459 -0.11561447 0.38863917 -0.04857976 -0.05522817 -0.02591463
-0.17105475 -0.05820191 0.44160473 0.11564343 -0.42909363 -0.19014337 0.55109851 -0.07184171 -0.11923492 -0.06643019
-0.19878515 -0.05541823 0.42291960 0.23834440 -0.55262035 -0.21111818 0.73419061 -0.08690659 -0.16097328 -0.14039835
-0.21239319 -0.17633392 0.33364411 0.24935073 -0.53905124 -0.24025590 1.05076844 -0.11733213 -0.15385532 -0.21551476
-0.25556792 -0.28269320 0.08971026 0.18091214 -0.40116943 -0.23821177 1.27373924 -0.10786058 -0.05670531 -0.18459751
-0.25511498 -0.16363342 -0.17506308 -0.00083238 -0.21795416 -0.11803749 1.08170972 -0.04625901 -0.03099410 -0.08912498
-0.12432260 -0.03397341 -0.10520868 -0.06110493 -0.08150940 0.02581071 0.46936235 -0.02612753 -0.02812230 -0.01271170
-0.02477096 0.00221442 -0.01826877 -0.03392645 -0.04633262 0.03652882 0.11242538 -0.01332667 -0.00524258 -0.00218289
-0.01048097 0.00097885 -0.00245555 0.00926946 -0.00962869 0.01050047 -0.00207923 0.00109520 -0.00030563 0.00337232
0.01385673 0.00728471 0.00010516 0.00507727 -0.00077962 -0.00360290 0.00729220 0.00268064 -0.00556496 -0.01352924
-0.01890587 -0.00233283 0.04043864 0.07368745 0.02134916 -0.06963658 0.02649537 -0.02355432 -0.02147550 -0.01422031
-0.07489262 -0.02577094 0.25054543 0.33042720 0.04372614 -0.34563430 0.04090770 -0.10504717 -0.02189988 -0.08799477
-0.17895582 -0.04554628 0.63528948 0.55630735 -0.02778549 -0.56389640 0.16811935 -0.17973929 -0.18757744 -0.18427075
-0.31890691 0.04283200 1.14553826 0.63764763 -0.32119082 -0.64100462 0.46345005 -0.36859540 -0.35671244 -0.30274024
-0.04666352 0.38517892 1.35286543 0.80238640 -0.67962075 -0.78098833 0.30808793 -0.71173853 -0.05490473 -0.56372053
0.63320819 0.73707824 1.39423708 0.73167592 -0.82411862 -0.67988283 0.31553727 -1.08201362 0.27189702 -1.52219588
0.68271667 0.12782921 1.36674550 0.34163845 -0.49138378 -0.23639140 1.20799866 -1.32531600 0.59777975 -2.26763235
0.00013317 -0.06041910 0.81784607 0.05785912 -0.28079536 0.16554391 2.12807247 -1.35162213 0.59094646 -2.04496928
-0.39647461 0.74677099 -0.20459426 -0.50319713 -0.11744380 0.09261643 2.15112353 -0.89513458 0.29003413 -1.16526653
-0.16828847 0.74659247 -0.52997486 -0.90695257 0.29570045 0.10151715 1.32919548 -0.40008706 0.02041312 -0.49504848
-0.01085665 0.24488169 -0.31614416 -0.42794963 0.37154465 0.06569237 0.44250989 -0.13764663 -0.04906506 -0.21168863
0.00925359 -0.01029344 -0.04498493 -0.04274871 0.11986058 0.05751017 -0.00177690 -0.02509895 -0.03574345 -0.05306636
-0.00626202 -0.02092254 0.01472651 0.09783977 -0.00274215 -0.03023137 -0.01204302 -0.01317578 -0.00842193 -0.01087877
-0.08012742 -0.08459981 0.15460320 0.53808803 0.19031275 -0.29948966 -0.05096488 -0.03984050 -0.13144388 -0.20316409
-0.27478872 -0.26466908 0.63657749 1.21721780 0.28136703 -0.78703512 -0.08455934 0.09419518 -0.29064028 -0.53945812
-0.46414292 -0.46657966 0.83677629 1.35105332 0.21402518 -0.33643721 -0.24985195 0.37119670 -0.51779085 -0.74797425
-0.51783855 -0.50411928 0.94194588 1.07787019 0.04748771 0.05872666 -0.37294473 0.08615109 -0.04902167 -0.75303845
-0.04961796 -0.36510994 1.08937290 0.80940840 -0.19270303 0.32389742 -1.17248598 -0.58508014 0.79755183 -0.66736241
0.92663025 -0.26064132 1.18408060 0.59963980 -1.31900699 -0.58857557 -0.95011361 -1.55990931 1.31408790 0.62333667
1.50189482 -1.18257493 1.06277746 0.01850971 -1.33915915 -0.55926290 -0.18233746 -2.08096982 1.53887375 1.21763603
1.07152660 -0.48366769 0.61521121 -0.38896693 -0.18684953 0.12991356 -0.24889074 -1.98120384 1.36964090 0.09262871
0.11378618 1.18978039 0.02823535 -0.37724860 0.34838873 0.46086939 0.04605543 -1.56239752 0.58569938 -0.85608530
0.12024919 0.68143078 -0.19151081 -0.88709756 1.22785637 0.67826323 0.29528146 -0.82072704 0.12791251 -1.23240736
-0.01288501 -0.08472448 -0.56866106 -0.87608109 1.42340423 1.02248786 0.33511159 -0.52501339 0.34268094 -1.07852168
-0.13783755 -0.18235362 -0.21155268 -0.22539043 0.36325025 0.96384181 0.00086638 -0.17166116 -0.08201098 -0.32862365
-0.02007803 -0.02507934 0.03079370 0.22918955 -0.02080568 -0.12035561 -0.04218738 0.09253689 -0.05567930 -0.07626804
-0.20340293 -0.17728187 0.40732238 1.02648094 0.14590381 -0.51559757 -0.23191292 0.32494848 -0.25204775 -0.51107615
-0.41101586 -0.53264068 0.80207977 1.39338443 -0.03208549 -0.83592319 -0.46444974 0.94653223 -0.03379246 -0.84427415
-0.80507146 -0.90965921 0.45273382 0.98429645 -0.51405953 0.20365058 -0.65746093 1.64761545 0.44667598 -0.86408701
-0.95985413 -1.31732958 0.76438297 0.53834338 -0.50144366 0.72149360 -1.24102651 1.38259092 0.88924322 -0.27639872
-0.11271329 -1.50549621 0.60470691 -0.07176247 -0.89359927 0.45454801 -1.41833493 0.76519845 0.41137913 1.76801355
0.98528346 -0.97356907 0.68586137 0.65974490 -3.33738276 -0.49780174 -0.71745106 0.69656366 -0.70184715 3.18944065
1.43301312 -0.79419089 0.20455020 1.30440643 -3.02074286 -0.92748723 -1.50645522 1.18194240 -1.09412732 3.24636980
1.69453226 -1.22218790 -0.09412476 0.90244241 -1.14422823 -0.24563023 -2.73270593 1.37875637 -0.25300368 1.70990004
0.98694144 -0.27834194 -0.14464658 0.66120534 -0.23947261 1.19514216 -2.70979003 0.49523461 0.14923265 -0.11323324
0.11572732 -0.76403763 -0.11801015 0.11412624 0.51817086 2.33228156 -1.47012304 -0.14262180 0.48575509 -1.04043781
0.11102565 -1.08175143 -0.78499147 -0.65338718 0.53739879 3.38074423 -0.44209812 -0.55690336 1.04868004 -1.57139994
-0.24449850 -0.46531409 -0.35044420 -0.37474558 -0.04415657 2.55961485 -0.20973325 -0.28264474 0.00165254 -0.59096469
-0.02817793 -0.00774901 -0.01111564 0.23727979 -0.09361478 -0.11150134 -0.04207163 0.32873327 -0.11093925 -0.15175976
-0.20272710 -0.16233754 0.24126939 0.60645980 -0.25942459 -0.41793114 -0.28422332 0.90220287 0.01082155 -0.39782083
-0.17048065 -0.44628196 -0.31726665 0.19599935 -0.59685265 -0.34753809 -0.22577603 0.83070948 0.73308820 0.35177558
-0.42339810 -0.70510260 -0.96347874 -0.91561098 -0.91545137 0.70856277 -0.15781680 1.00200913 1.63727511 0.73190622
-0.43023908 -1.36372717 -0.74914514 -2.14691887 0.06410476 1.22364631 -0.77018668 0.82751935 1.64790490 1.69548706
0.66676882 -1.33812142 -1.15511342 -2.20837374 0.06448864 1.33742024 -0.46084817 1.04428966 1.12295408 0.91984561
0.54971028 1.76578818 -1.27711121 0.86835753 -2.67105687 -0.20210438 -0.34002031 1.81256896 -0.61975388 0.10746812
0.38044879 2.44721643 0.00930707 2.30119727 -1.49121946 -2.02857043 -2.24790814 3.66374522 -1.69321140 -1.33954895
1.09279875 -0.56781398 -0.02124747 1.96152490 0.18088586 -1.71167900 -3.94915680 3.55412747 -0.39341900 -0.17611278
1.44933813 -1.32732050 0.06948555 1.33456003 -0.89466300 -0.93169498 -2.95937591 1.67511491 0.70735608 0.85099357
0.94346245 -1.73203598 -0.10211402 0.52360435 -0.83917004 0.22976454 -1.12373631 0.46820380 1.47012407 0.14546103
0.80724764 -1.13135426 -0.89365153 -0.33884541 -0.86677026 2.30707707 -0.40059789 -0.26072458 1.54594510 -0.76695259
-0.13170848 -0.33074950 -0.25446169 -0.24753720 -0.43658982 2.14353463 -0.27094645 -0.24532845 0.19274217 -0.42837345
-0.04626376 -0.00427297 -0.00703130 0.09172830 -0.08836537 -0.05816076 -0.03244038 0.31359879 -0.09374030 -0.09636097
-0.07848811 -0.08076107 -0.47664638 -0.03012747 -0.33534625 -0.24188210 -0.09238808 0.63850866 0.32246496 0.36534784
0.54563774 -0.20975002 -2.08747795 -1.01258560 -0.17384822 -0.08705057 0.56892878 0.08096007 0.81051663 1.53085381
0.26537225 -0.64252852 -2.85267673 -1.84074016 0.90914738 0.58150756 0.63798477 -0.03278893 1.05300176 1.89905510
0.58564826 -1.98671514 -2.77946455 -1.97542393 2.46885679 1.68212053 0.33454011 -0.72750002 0.82450454 1.55384844
0.69724174 -1.46246838 -3.26293121 -1.19113885 1.83598131 2.78417935 0.70426577 -1.25716747 1.82830753 -0.68703869
-0.65499287 3.69208989 -2.58162995 1.30387874 -1.33741521 1.00376382 -0.72902089 -0.70072106 1.17127755 -1.15651701
-2.84993929 3.07683079 -1.20728837 1.71346572 0.06435493 -1.17212868 -1.99168361 1.21326514 0.16421814 0.98470410
-1.12099123 -0.53672628 -0.67207023 0.69670822 1.32465108 -1.88335943 -2.00606025 2.28813952 -0.19896327 2.09741976
0.65983581 -1.70262501 -0.09606487 0.60984291 -0.25283152 -2.45346879 -0.84844064 1.00468938 0.56030392 2.52054368
1.49185942 -1.20123361 -0.24132482 -0.67148131 -0.54417621 -2.64785594 0.71846206 0.23080093 1.65555379 1.23818791
1.51356928 -0.41044398 -0.76764257 -0.53442480 -0.68907369 -0.92730950 0.93746621 -0.25190734 1.32728573 -0.20458457
0.12311651 -0.08066389 -0.08447889 -0.12547723 -0.28874682 0.34588500 0.13684366 -0.18165348 0.40569170 -0.22603452
-0.05808909 -0.00670610 0.04410964 -0.00253041 -0.00735796 0.00684434 -0.04061428 0.10342943 -0.02750429 -0.00533550
0.10429905 -0.05089733 -0.62185311 -0.19038839 -0.05832872 -0.22726615 0.05462714 0.28755900 0.15480595 0.55296542
0.96284899 -0.28432989 -1.61445259 -1.36139405 0.94528069 -0.64547673 0.80299918 0.21338444 -0.03888627 1.00176953
1.08192583 -0.93092770 -1.62774787 -1.28127133 2.20467647 -0.11720235 0.82685527 -0.03848667 -0.84310474 0.72347239
1.09526131 -3.00451592 -1.46382026 -0.26653732 2.94674913 1.90722105 1.09889861 -1.49599030 -0.96455424 0.13639863
0.41989259 -1.30137719 -1.03652821 0.96180839 1.70115284 2.59872212 0.27458005 -4.16117129 1.18628354 -0.63344827
-2.91217407 3.04152401 -0.75532611 1.70927595 -0.74791791 0.65644506 -0.32810441 -4.45911877 2.40931072 1.39667998
-4.55608025 2.47433006 -0.97601898 0.54318471 1.25065600 -1.87565290 0.11809929 -0.35960843 1.67596822 1.69298088
-2.50440915 -1.42170293 -0.86195428 0.23929040 2.71089324 -1.55827028 -0.19059190 0.85965574 -0.28531391 2.99533376
-0.12533356 -1.80240003 -0.37736277 0.17120940 1.51638240 -0.65167929 -0.01898999 1.13697806 -1.12803657 1.27888089
0.96216123 -0.77515038 -0.69224012 -0.77092183 0.51602933 -1.47122380 1.75251743 0.43227575 -0.01087248 0.07556966
1.47547888 -0.24943859 -0.48994270 -0.63385915 -0.40070408 -1.43857633 1.57357920 -0.10136299 0.77536212 -0.52972555
0.21296123 -0.04007152 0.14462204 -0.15648238 -0.28107166 -0.26640120 0.32128526 -0.07782096 0.35509216 -0.24679803
-0.07324393 -0.00534121 -0.03390807 0.22948233 -0.00923628 0.01320303 -0.07332237 0.00657170 -0.03176576 -0.04250609
0.19435516 -0.11205836 0.20030256 0.33663566 -0.18214232 -0.24890904 -0.16132381 0.21818365 -0.31511664 0.07901590
1.38951199 -0.62112100 0.44844647 -0.85752433 1.01351502 -0.85985583 0.26616084 0.34525427 -1.01285306 -0.11220457
1.82479169 -1.33390134 0.33622886 -1.73476029 2.50753176 -1.29205766 1.13088179 0.09570879 -1.34292575 -0.19694924
1.68468671 -2.36565472 0.39662528 -1.47874042 1.78412617 -0.32121366 2.23643520 -1.26917308 -0.53185651 -0.10774794
-0.37628788 -0.21758711 1.52918475 -0.69323822 0.64481575 0.04982376 0.66709339 -3.17294609 1.74722955 -0.17974006
-4.18263833 2.89153638 1.55573281 -0.01839299 1.12238724 -1.41972863 0.52189182 -1.48872078 2.13390938 -1.11925582
-3.65210124 1.11912239 0.05060477 -0.36236426 2.78589679 -2.26031207 -0.03412106 0.51853321 1.01266162 0.83293737
-1.09423109 -2.62540010 -0.07953204 0.56392992 2.69031228 -0.90742555 -1.08397751 1.73201355 -0.97660393 1.77244960
0.31282332 -1.66920419 -0.20674848 1.03828156 1.00837005 0.59220087 0.09852018 1.72278648 -1.83845615 -1.04997979
0.86419615 -0.76244202 0.30119051 0.25912520 -0.04915643 0.13886222 1.30443387 0.48167502 -1.13193838 -1.39335326
1.14129300 -0.30372984 0.78517526 -0.30014084 -0.44566618 -0.55699490 0.90420536 -0.11898459 -0.09788892 -0.99408236
0.15450059 -0.08088560 0.80446044 -0.17561135 -0.29303782 -0.10908896 0.01833823 -0.05286587 -0.00267418 -0.28937239
-0.10868852 -0.00534183 -0.09466961 0.52359460 -0.07069976 0.01814324 -0.07368393 -0.02244623 -0.06910980 -0.09602964
0.03536931 -0.27128901 0.81054232 1.57630827 -0.60541995 -0.07872259 -0.44853275 -0.08487990 -0.51404924 -0.41278096
1.08732359 -1.17897334 1.53797942 0.72810684 -0.29200977 0.69282518 -0.62418378 -0.76040859 -0.50423685 -0.70282058
1.96890197 -1.49032762 1.09628583 -1.04645859 0.31459368 -0.56575819 0.82159886 -1.52465582 0.74725486 -0.30073822
1.94884073 -0.85322584 0.78885138 -2.81598194 -0.64845814 -2.14192873 3.22773570 -1.76883664 2.16706127 0.08510057
-0.37286786 0.50927990 2.33962049 -2.56312630 -0.45549530 -2.41136748 2.40362481 -0.91421285 2.42097218 -0.93967036
-3.10070783 3.00683850 1.77273986 -1.69833396 1.69042385 -1.21826079 0.20748889 0.29333926 -0.12817451 -0.82670845
-1.49236858 -0.71791381 0.77401583 -0.69868459 2.57520619 -0.40885849 -0.75064217 0.44362856 -0.53026630 0.79321215
0.46819780 -2.33751939 0.28031950 0.91677135 0.06937736 0.25926621 0.33108912 0.26301567 -0.45181313 0.18219193
0.65714126 -1.01859929 0.26401111 1.44195980 -0.91578765 0.71446070 1.01504393 -0.24417932 -0.84270837 -1.04093385
0.45517546 -0.51555765 1.36405969 0.95803440 -0.89797544 0.58969728 0.78683963 -0.68943246 -0.70580688 -1.31675353
0.45093642 -0.25267945 2.01256830 -0.14317809 -0.78269027 0.12883557 0.14925952 -0.52872525 -0.05570890 -0.95973892
0.02593783 -0.07494683 1.20221522 -0.20700745 -0.30643251 0.00556748 -0.26847136 -0.05479431 -0.12683559 -0.20626969
-0.12116144 -0.01985052 -0.04360666 0.45794435 -0.10640234 0.06224524 -0.05009000 -0.04932086 -0.11120735 -0.07356857
-0.08505169 -0.18139636 0.84079355 1.95067666 -0.66633738 -0.00946207 -0.45731399 -0.40348754 -0.41757226 -0.52579483
0.36294272 -0.85889982 1.90420952 1.62960900 -1.51790580 1.81849717 -1.28107592 -1.58739339 0.45724714 -0.90929836
0.99822621 -0.52134427 1.77092627 0.16933172 -2.38147153 2.07955910 -0.09921294 -2.38610387 1.39930140 -1.03647886
1.86999030 0.06876270 1.49991277 -1.73639527 -2.71997162 0.38867154 2.60315911 -1.41776128 0.99379351 -1.52904623
0.38807280 0.68298304 1.73222733 -1.81837187 -1.16880471 -0.29342942 3.20067043 -0.23920452 -0.46176209 -2.03904106
-0.58811358 0.87244921 0.63175855 -0.93186288 0.12245132 0.01265429 2.15910502 -0.06427389 -1.47514549 -0.74272344
0.09059986 -0.76978648 0.18107557 0.80598624 -0.15572209 0.52320348 2.00869288 -0.95046918 -1.53749918 -0.19636486
0.30091617 -0.61091983 0.67256639 1.43474680 -1.09733885 0.42359804 2.07560136 -1.86293162 -0.46710251 -0.87503163
-0.19254650 -0.05402785 0.88708946 1.22246270 -1.08383493 0.67788952 1.04562295 -2.04536596 -0.03866156 -0.39602733
-0.12940615 -0.14120899 1.46464760 1.14858444 -0.72415384 0.66834641 -0.01030947 -1.45393737 -0.24347893 -0.57418374
-0.06723571 -0.07742408 1.56621913 -0.15634157 -0.58790274 0.51919477 -0.20787498 -0.62687476 0.08255957 -0.43630823
-0.02180001 0.04197330 0.66160157 -0.13992532 -0.13346535 0.02357884 -0.18346570 -0.05547708 -0.14037281 -0.04029030
-0.06652950 0.02016588 0.03887561 0.20779751 -0.02479658 0.02246518 -0.01988176 -0.02283584 -0.07479173 -0.03674728
-0.03955428 0.11688999 0.34105826 1.11675495 -0.33850765 -0.08826799 -0.20769700 -0.31500478 -0.26641011 -0.30638442
0.19024651 0.28452651 1.07376065 1.29521233 -1.22077420 0.30059938 -0.86983082 -0.94313690 0.64737614 -0.72186729
0.54048042 0.79348683 0.84785024 0.97375790 -1.95303182 1.26189360 -0.84742080 -0.93980852 0.43523178 -1.09827951
1.59866848 0.32928216 0.89344124 -0.05816881 -1.77154098 1.17305320 0.42386150 -0.46656938 -0.44826399 -1.70538790
1.69741476 -0.90436230 0.37696934 -0.41916471 -1.22939619 0.62070014 1.59138786 -0.46356559 0.59358740 -1.86181777
1.13750636 -0.70914944 -0.62635961 0.44104672 -1.10702146 0.38025177 1.79232042 -0.57886141 0.60111088 -1.34004776
0.76980009 0.16582257 -0.29902811 0.85278911 -0.79082966 0.10552363 1.32594429 -0.96977965 0.21268449 -1.39420783
-0.37066970 0.71667073 1.14296120 0.31543537 -0.24990447 0.49167524 0.43925609 -1.44365493 0.30749868 -1.40454560
-0.72877758 0.25827256 1.30528482 0.46910699 0.31434220 0.49617123 -0.35786737 -2.06704001 0.55489341 -0.25808858
-0.17627718 -0.14024588 0.90078153 0.48087006 0.11119570 0.38626083 -0.61722630 -1.23448456 0.05144919 0.22069252
-0.12866024 -0.04370852 0.60495058 -0.27709718 -0.07907148 0.53833270 -0.36036369 -0.49451924 0.12358106 0.13378602
-0.03627022 0.06433023 0.18746179 -0.07439645 -0.00426957 0.01231238 -0.06884477 -0.04509145 -0.04019439 0.01894738
-0.00773358 0.01275041 0.01395349 0.08833242 -0.00463379 0.00377960 -0.00826580 -0.00752685 -0.05348814 -0.01851929
-0.04703219 0.07818302 0.02971036 0.72578146 -0.09670531 -0.05974389 -0.07892924 0.03841208 -0.41486030 -0.15966452
-0.02701771 0.24805902 0.28583337 1.45147786 -0.38116158 -0.49493360 -0.41990513 0.23944593 -0.46692665 -0.40380213
0.10194572 0.68910404 -0.08922776 1.39700974 -0.54691458 -0.47768023 -0.82379817 0.48416371 -0.62552281 -0.09926406
0.96068179 -0.21125735 -0.46254880 0.91914197 -0.18756043 0.25087296 -1.36844459 0.41267195 -0.32382192 0.01165936
1.59691868 -1.47716912 -0.73515789 0.59779020 -0.20926992 0.63824237 -1.74920058 -0.03403199 1.97391193 -0.58953166
1.32490494 -0.56281382 -1.09583424 0.30387230 -0.40774457 0.67518076 -1.79223161 0.28041541 2.35979098 -1.09454652
0.18374865 0.50142480 -0.64914899 -0.29429863 0.04436115 0.76757991 -1.62473822 0.94583321 1.38261196 -1.26554915
-0.53224319 0.55832429 0.11090039 -0.44307871 0.83578982 0.22156351 -1.20936469 -0.29032015 1.05498299 -0.31151209
-0.32391795 0.08401954 -0.02238312 0.10780061 0.78542457 -0.08904930 -0.71403789 -1.25323435 0.72165857 0.70403799
-0.18981491 -0.16457936 -0.07125958 -0.23063820 0.30790000 0.27468628 -0.37556756 -0.82772692 0.30813892 0.99432200
-0.06372100 -0.07286999 0.12072081 -0.16842117 0.05406552 0.13340626 -0.15079250 -0.38566745 0.04811021 0.48327776
-0.01104283 0.02041433 0.03713854 -0.01664603 0.00884102 -0.00020488 -0.00690521 -0.02985599 -0.00720972 0.01883134
0.00241711 -0.00487814 -0.01022964 0.03924060 0.00160011 -0.00282767 -0.00455388 -0.01421242 -0.03329180 -0.00563154
-0.02037103 -0.06746844 -0.05773103 0.38416592 -0.02289176 -0.04857407 -0.00711833 0.16064704 -0.24468130 -0.02727205
-0.17160392 -0.30839454 -0.15487501 0.99112343 -0.11487867 -0.23632735 -0.06426345 0.61048807 -0.58335180 0.04093721
-0.33748386 -0.61041057 -0.55721457 1.27722535 -0.27155650 -0.15333417 -0.23165203 1.16798870 -0.84987114 0.56818593
-0.43541175 -0.98305513 -0.86864407 0.96215173 -0.43626055 0.36454943 -0.47359320 1.52722792 -0.88118416 1.23744824
-0.37791706 -1.20079152 -0.70695297 0.99866113 -0.92223907 0.47634358 -0.62779758 1.33916675 -0.43194642 1.47669164
-0.48113740 -0.82967869 -0.59046757 0.76754094 -1.08779256 0.23653329 -0.64841996 1.68156219 0.01237573 0.94652354
-0.50245424 -0.39113660 -0.57382824 -0.07775450 -1.04240469 -0.09541286 -0.49607211 2.02846111 0.34163021 0.83383349
-0.37878478 -0.17642910 -0.34145274 -0.22519646 -0.91436541 -0.15617207 -0.34443940 0.78917012 0.33772592 1.41209037
-0.20053906 -0.10909995 -0.24909475 -0.05926912 -0.47348328 -0.08676462 -0.17450261 -0.21489433 0.19745922 1.39195391
-0.09546463 -0.07228843 -0.21596071 -0.04774075 -0.09533171 -0.03807131 -0.06986778 -0.25648135 0.01270033 0.86932356
-0.01524354 -0.01741223 -0.07605807 -0.01033970 -0.00087507 -0.02369474 -0.02827663 -0.12176854 -0.02884014 0.30330931
-0.00273522 -0.00011759 0.01581852 -0.00301235 0.00141993 -0.01024625 -0.00628713 -0.00334696 -0.00513512 0.00989753
