-0.087532   -0.051429    0.202845    0.278571   -0.117255    0.027765   -0.105125    0.250813    0.092121    0.019262 
  -0.082459   -0.173377   -0.219333    0.261515   -0.286755   -0.176069    0.068214   -0.173098    0.042849   -0.200348 
  -0.052657   -0.200114    0.084265    0.177247    0.124126   -0.291759   -0.160831    0.024886    0.209600   -0.023514 
   0.092250    0.293940    0.145156    0.258365   -0.104422    0.044572    0.294137    0.293295    0.058182    0.089016 
  -0.299275   -0.001992    0.034027    0.157513   -0.132689   -0.071310   -0.001583   -0.036547   -0.125105    0.270620 
  -0.311587   -0.114952    0.160211    0.305707   -0.045134   -0.256734   -0.312658    0.232818   -0.029880   -0.016748 
  -0.038502   -0.098021    0.109411   -0.303638    0.032882   -0.118276   -0.058542    0.178669   -0.002746    0.024941 
  -0.129673    0.035010    0.229918   -0.079670   -0.105002   -0.219974    0.231672    0.308631   -0.246563   -0.142901 
  -0.307062    0.050589    0.234254    0.075772   -0.257155    0.192270    0.259066    0.302860    0.163080   -0.184677 
   0.220954   -0.207325    0.313355    0.104043   -0.097076    0.172337   -0.170088    0.035224    0.031226   -0.117611 
  -0.259723    0.035248   -0.190527   -0.063918    0.271791   -0.232030   -0.003327   -0.253296   -0.086848    0.047612 
   0.161543   -0.080221    0.114194   -0.246708   -0.035996    0.268721    0.033394    0.268201    0.139728    0.105298 
   0.126232   -0.300393    0.180053   -0.152578    0.226785   -0.232545    0.183472   -0.240197   -0.024375    0.158349 
   0.002992   -0.311542    0.007417    0.068507   -0.305493   -0.138821   -0.041782   -0.198108    0.276299    0.270536 
   0.176409   -0.042824   -0.003591   -0.270278   -0.265403    0.079680    0.281459   -0.291929    0.131441   -0.043914 
   0.005754   -0.061993   -0.266244   -0.146538   -0.084001   -0.159859   -0.080854    0.234162   -0.206178   -0.011191 
  -0.255527   -0.269304    0.287789   -0.151504   -0.070155   -0.193266    0.070199    0.308596   -0.191461    0.047375 
  -0.029026   -0.208741   -0.084085   -0.315371    0.165907   -0.098306   -0.254534   -0.022270    0.121451    0.292792 
  -0.176820    0.092747   -0.204356    0.255673    0.196821    0.220317   -0.160550   -0.309734    0.042897   -0.026501 
  -0.148790    0.007938   -0.033852    0.252597   -0.282760   -0.081304    0.261683    0.017315    0.082657   -0.294892 
   0.300915   -0.275235   -0.092682    0.026279    0.220024   -0.032006    0.291635   -0.027720    0.226593   -0.304492 
   0.232607    0.219518   -0.312047   -0.250022   -0.092702   -0.311086    0.080234    0.099579    0.154365    0.088272 
  -0.153679    0.062391   -0.009312   -0.289693   -0.225849    0.160381   -0.005215    0.254901   -0.129322    0.235773 
   0.295987   -0.246025    0.045369   -0.228860    0.138441   -0.031373    0.174017    0.235613    0.146466    0.130462 
  -0.056396    0.203480    0.198137    0.216828    0.015425   -0.062426    0.055089   -0.036869    0.149440    0.151492 
  -0.144559    0.290554    0.152636    0.118044   -0.047117   -0.054702    0.217901   -0.293231   -0.244471    0.246788 
   0.116726   -0.055626   -0.134289    0.231606   -0.158643    0.127799    0.102201   -0.049690   -0.304201    0.071573 
  -0.011258   -0.110723   -0.237147    0.009780   -0.060212   -0.047189   -0.011241    0.183856   -0.105352    0.224524 
  -0.284543   -0.314971   -0.063067    0.036016    0.069139    0.203653   -0.045275   -0.087832   -0.046274    0.188213 
  -0.253404   -0.009935   -0.015166   -0.016179    0.043633   -0.307871   -0.264737   -0.109359   -0.075609   -0.163575 
   0.086078    0.280411   -0.193687   -0.041975   -0.278499    0.070260    0.058153    0.232082    0.243932    0.188879 
   0.199387   -0.283158    0.186857   -0.261809   -0.225824   -0.059091   -0.179890   -0.267221   -0.119768    0.173594 
   0.068778   -0.169809    0.297584    0.034446    0.244111    0.039672    0.164902    0.085524   -0.176422   -0.174345 
  -0.052645   -0.000354   -0.250610    0.154471   -0.038179    0.269482    0.178091   -0.241013    0.173790    0.207365 
  -0.286464    0.289729    0.199881   -0.204294    0.038933   -0.239271   -0.268304    0.024940   -0.146923   -0.223786 
   0.049954    0.302517    0.088642   -0.265994    0.262986   -0.224870    0.165814    0.233573    0.006168   -0.054434 
   0.288499   -0.230213    0.176837    0.188997    0.287145   -0.220927    0.034348   -0.150017    0.259773    0.170312 
  -0.055746   -0.257206   -0.028527   -0.046992    0.147630    0.093673    0.184433    0.104241    0.076683   -0.129296 
   0.031665    0.306808    0.116607   -0.166430    0.157691   -0.310561    0.061596   -0.082210    0.205488   -0.198963 
  -0.184007    0.104252    0.253521    0.072469   -0.122818    0.138963   -0.109607    0.172497   -0.021953   -0.234113 
  -0.227186   -0.184415    0.202465    0.224345   -0.141028    0.182183    0.234783    0.116176    0.182592    0.155028 
  -0.168085    0.176151    0.043774    0.171874    0.265840    0.305239    0.302602    0.260716    0.199035    0.124533 
   0.230371   -0.051313    0.259746   -0.295808    0.082147   -0.002697    0.209104   -0.146907    0.041619    0.002306 
   0.177146   -0.315230    0.016399   -0.133809    0.082046    0.195700   -0.276196    0.194885   -0.055767    0.026950 
   0.105554    0.001011   -0.089657    0.283772    0.006014   -0.111720    0.080056    0.268586    0.284448   -0.013963 
  -0.043048    0.018535   -0.285742   -0.235559    0.135085   -0.143913   -0.231267    0.164268    0.182257    0.219309 
  -0.030248    0.116455   -0.182514   -0.101002   -0.027618    0.045055    0.192006    0.265056   -0.212873    0.046078 
   0.311715   -0.260972   -0.070175    0.094973   -0.100137   -0.039071   -0.184393   -0.057902    0.198167    0.088730